<?xml version='1.0' encoding='utf-8'?>
<BIF VERSION="0.3">
  <NETWORK>
    <NAME>CN_Weighted</NAME>
    <VARIABLE TYPE="nature">
      <NAME>AAM</NAME>
      <OUTCOME>Yes</OUTCOME>
      <OUTCOME>No</OUTCOME>
      <PROPERTY />
    </VARIABLE>
    <VARIABLE TYPE="nature">
      <NAME>Active_Reflective_Dim</NAME>
      <OUTCOME>Active</OUTCOME>
      <OUTCOME>Reflective</OUTCOME>
      <PROPERTY />
    </VARIABLE>
    <VARIABLE TYPE="nature">
      <NAME>BO</NAME>
      <OUTCOME>Yes</OUTCOME>
      <OUTCOME>No</OUTCOME>
      <PROPERTY />
    </VARIABLE>
    <VARIABLE TYPE="nature">
      <NAME>CT</NAME>
      <OUTCOME>Yes</OUTCOME>
      <OUTCOME>No</OUTCOME>
      <PROPERTY />
    </VARIABLE>
    <VARIABLE TYPE="nature">
      <NAME>EX</NAME>
      <OUTCOME>Yes</OUTCOME>
      <OUTCOME>No</OUTCOME>
      <PROPERTY />
    </VARIABLE>
    <VARIABLE TYPE="nature">
      <NAME>LG</NAME>
      <OUTCOME>Yes</OUTCOME>
      <OUTCOME>No</OUTCOME>
      <PROPERTY />
    </VARIABLE>
    <VARIABLE TYPE="nature">
      <NAME>MS</NAME>
      <OUTCOME>Yes</OUTCOME>
      <OUTCOME>No</OUTCOME>
      <PROPERTY />
    </VARIABLE>
    <VARIABLE TYPE="nature">
      <NAME>QU</NAME>
      <OUTCOME>Yes</OUTCOME>
      <OUTCOME>No</OUTCOME>
      <PROPERTY />
    </VARIABLE>
    <VARIABLE TYPE="nature">
      <NAME>SU</NAME>
      <OUTCOME>Yes</OUTCOME>
      <OUTCOME>No</OUTCOME>
      <PROPERTY />
    </VARIABLE>
    <VARIABLE TYPE="nature">
      <NAME>Sensory_Intuitive_Dim</NAME>
      <OUTCOME>Sensory</OUTCOME>
      <OUTCOME>Intuitive</OUTCOME>
      <PROPERTY />
    </VARIABLE>
    <VARIABLE TYPE="nature">
      <NAME>Sequential_Global_Dim</NAME>
      <OUTCOME>Sequential</OUTCOME>
      <OUTCOME>Global</OUTCOME>
      <PROPERTY />
    </VARIABLE>
    <VARIABLE TYPE="nature">
      <NAME>TAM</NAME>
      <OUTCOME>Yes</OUTCOME>
      <OUTCOME>No</OUTCOME>
      <PROPERTY />
    </VARIABLE>
    <VARIABLE TYPE="nature">
      <NAME>VAM</NAME>
      <OUTCOME>Yes</OUTCOME>
      <OUTCOME>No</OUTCOME>
      <PROPERTY />
    </VARIABLE>
    <VARIABLE TYPE="nature">
      <NAME>Visual_Verbal_Dim</NAME>
      <OUTCOME>Visual</OUTCOME>
      <OUTCOME>Verbal</OUTCOME>
      <PROPERTY />
    </VARIABLE>
    <DEFINITION>
      <FOR>AAM</FOR>
      <GIVEN>Active_Reflective_Dim</GIVEN>
      <GIVEN>Sensory_Intuitive_Dim</GIVEN>
      <GIVEN>Visual_Verbal_Dim</GIVEN>
      <GIVEN>Sequential_Global_Dim</GIVEN>
      <TABLE>0.35714285714285715 0.6428571428571428 0.5 0.5 0.42857142857142855 0.5714285714285714 0.5714285714285714 0.4285714285714286 0.14285714285714285 0.8571428571428572 0.2857142857142857 0.7142857142857143 0.21428571428571427 0.7857142857142857 0.35714285714285715 0.6428571428571428 0.6428571428571429 0.3571428571428571 0.7857142857142857 0.2142857142857143 0.7142857142857143 0.2857142857142857 0.8571428571428571 0.1428571428571429 0.42857142857142855 0.5714285714285714 0.5714285714285714 0.4285714285714286 0.5 0.5 0.6428571428571429 0.3571428571428571 </TABLE>
    </DEFINITION>
    <DEFINITION>
      <FOR>Active_Reflective_Dim</FOR>
      <TABLE>0.5 0.5 </TABLE>
    </DEFINITION>
    <DEFINITION>
      <FOR>BO</FOR>
      <GIVEN>Active_Reflective_Dim</GIVEN>
      <GIVEN>Sensory_Intuitive_Dim</GIVEN>
      <GIVEN>Visual_Verbal_Dim</GIVEN>
      <GIVEN>Sequential_Global_Dim</GIVEN>
      <TABLE>0.5 0.5 0.5 0.5 0.5 0.5 0.5 0.5 0.5 0.5 0.5 0.5 0.5 0.5 0.5 0.5 0.5 0.5 0.5 0.5 0.5 0.5 0.5 0.5 0.5 0.5 0.5 0.5 0.5 0.5 0.5 0.5 </TABLE>
    </DEFINITION>
    <DEFINITION>
      <FOR>CT</FOR>
      <GIVEN>Active_Reflective_Dim</GIVEN>
      <GIVEN>Sensory_Intuitive_Dim</GIVEN>
      <GIVEN>Visual_Verbal_Dim</GIVEN>
      <GIVEN>Sequential_Global_Dim</GIVEN>
      <TABLE>0.5 0.5 0.5 0.5 0.5 0.5 0.5 0.5 0.5 0.5 0.5 0.5 0.5 0.5 0.5 0.5 0.5 0.5 0.5 0.5 0.5 0.5 0.5 0.5 0.5 0.5 0.5 0.5 0.5 0.5 0.5 0.5 </TABLE>
    </DEFINITION>
    <DEFINITION>
      <FOR>EX</FOR>
      <GIVEN>Active_Reflective_Dim</GIVEN>
      <GIVEN>Sensory_Intuitive_Dim</GIVEN>
      <GIVEN>Visual_Verbal_Dim</GIVEN>
      <GIVEN>Sequential_Global_Dim</GIVEN>
      <TABLE>0.5714285714285714 0.4285714285714286 0.42857142857142855 0.5714285714285714 0.42857142857142855 0.5714285714285714 0.2857142857142857 0.7142857142857143 0.42857142857142855 0.5714285714285714 0.2857142857142857 0.7142857142857143 0.2857142857142857 0.7142857142857143 0.14285714285714285 0.8571428571428572 0.8571428571428571 0.1428571428571429 0.7142857142857143 0.2857142857142857 0.7142857142857143 0.2857142857142857 0.5714285714285714 0.4285714285714286 0.7142857142857143 0.2857142857142857 0.5714285714285714 0.4285714285714286 0.5714285714285714 0.4285714285714286 0.42857142857142855 0.5714285714285714 </TABLE>
    </DEFINITION>
    <DEFINITION>
      <FOR>LG</FOR>
      <GIVEN>Active_Reflective_Dim</GIVEN>
      <GIVEN>Sensory_Intuitive_Dim</GIVEN>
      <GIVEN>Visual_Verbal_Dim</GIVEN>
      <TABLE>0.0 1.0 0.3333333333333333 0.6666666666666667 0.3333333333333333 0.6666666666666667 0.6666666666666666 0.33333333333333337 0.3333333333333333 0.6666666666666667 0.6666666666666666 0.33333333333333337 0.6666666666666666 0.33333333333333337 1.0 0.0 </TABLE>
    </DEFINITION>
    <DEFINITION>
      <FOR>MS</FOR>
      <GIVEN>Active_Reflective_Dim</GIVEN>
      <GIVEN>Sensory_Intuitive_Dim</GIVEN>
      <GIVEN>Visual_Verbal_Dim</GIVEN>
      <GIVEN>Sequential_Global_Dim</GIVEN>
      <TABLE>0.36363636363636365 0.6363636363636364 0.36363636363636365 0.6363636363636364 0.6363636363636364 0.36363636363636365 0.6363636363636364 0.36363636363636365 0.36363636363636365 0.6363636363636364 0.36363636363636365 0.6363636363636364 0.6363636363636364 0.36363636363636365 0.6363636363636364 0.36363636363636365 0.36363636363636365 0.6363636363636364 0.36363636363636365 0.6363636363636364 0.6363636363636364 0.36363636363636365 0.6363636363636364 0.36363636363636365 0.36363636363636365 0.6363636363636364 0.36363636363636365 0.6363636363636364 0.6363636363636364 0.36363636363636365 0.6363636363636364 0.36363636363636365 </TABLE>
    </DEFINITION>
    <DEFINITION>
      <FOR>QU</FOR>
      <GIVEN>Active_Reflective_Dim</GIVEN>
      <GIVEN>Sensory_Intuitive_Dim</GIVEN>
      <GIVEN>Visual_Verbal_Dim</GIVEN>
      <GIVEN>Sequential_Global_Dim</GIVEN>
      <TABLE>0.5 0.5 0.6 0.4 0.4 0.6 0.5 0.5 0.3 0.7 0.4 0.6 0.2 0.8 0.3 0.7 0.7 0.30000000000000004 0.8 0.19999999999999996 0.6 0.4 0.7 0.30000000000000004 0.5 0.5 0.6 0.4 0.4 0.6 0.5 0.5 </TABLE>
    </DEFINITION>
    <DEFINITION>
      <FOR>SU</FOR>
      <GIVEN>Active_Reflective_Dim</GIVEN>
      <GIVEN>Sequential_Global_Dim</GIVEN>
      <TABLE>0.0 1.0 0.75 0.25 0.25 0.75 1.0 0.0 </TABLE>
    </DEFINITION>
    <DEFINITION>
      <FOR>Sensory_Intuitive_Dim</FOR>
      <TABLE>0.5 0.5 </TABLE>
    </DEFINITION>
    <DEFINITION>
      <FOR>Sequential_Global_Dim</FOR>
      <TABLE>0.5 0.5 </TABLE>
    </DEFINITION>
    <DEFINITION>
      <FOR>TAM</FOR>
      <GIVEN>Active_Reflective_Dim</GIVEN>
      <GIVEN>Sensory_Intuitive_Dim</GIVEN>
      <GIVEN>Visual_Verbal_Dim</GIVEN>
      <GIVEN>Sequential_Global_Dim</GIVEN>
      <TABLE>0.4444444444444444 0.5555555555555556 0.2777777777777778 0.7222222222222222 0.6666666666666666 0.33333333333333337 0.5 0.5 0.2777777777777778 0.7222222222222222 0.1111111111111111 0.8888888888888888 0.5 0.5 0.3333333333333333 0.6666666666666667 0.6666666666666666 0.33333333333333337 0.5 0.5 0.8888888888888888 0.11111111111111116 0.7222222222222222 0.2777777777777778 0.5 0.5 0.3333333333333333 0.6666666666666667 0.7222222222222222 0.2777777777777778 0.5555555555555556 0.4444444444444444 </TABLE>
    </DEFINITION>
    <DEFINITION>
      <FOR>VAM</FOR>
      <GIVEN>Active_Reflective_Dim</GIVEN>
      <GIVEN>Sensory_Intuitive_Dim</GIVEN>
      <GIVEN>Visual_Verbal_Dim</GIVEN>
      <GIVEN>Sequential_Global_Dim</GIVEN>
      <TABLE>0.65 0.35 0.5 0.5 0.5 0.5 0.35 0.65 0.5 0.5 0.35 0.65 0.35 0.65 0.2 0.8 0.8 0.19999999999999996 0.65 0.35 0.65 0.35 0.5 0.5 0.65 0.35 0.5 0.5 0.5 0.5 0.35 0.65 </TABLE>
    </DEFINITION>
    <DEFINITION>
      <FOR>Visual_Verbal_Dim</FOR>
      <TABLE>0.5 0.5 </TABLE>
    </DEFINITION>
  </NETWORK>
</BIF>
